digraph Tree {
node [shape=box] ;
0 [label="X[1] <= 0.393\ngini = 0.5\nsamples = 1500\nvalue = [750, 750]"] ;
1 [label="gini = 0.464\nsamples = 950\nvalue = [602, 348]"] ;
0 -> 1 [labeldistance=2.5, labelangle=45, headlabel="True"] ;
2 [label="gini = 0.393\nsamples = 550\nvalue = [148, 402]"] ;
0 -> 2 [labeldistance=2.5, labelangle=-45, headlabel="False"] ;
}
